import cv2
import imutils
import numpy as np
import argparse

def detect(frame):
    bounding_box_cordinates, weights =  HOGCV.detectMultiScale(frame, winStride = (4, 4), padding = (8, 8), scale = 1.03)
    
    person = 1
    for x,y,w,h in bounding_box_cordinates:
        cv2.rectangle(frame, (x,y), (x+w,y+h), (0,255,0), 2)
        cv2.putText(frame, f'person {person}', (x,y), cv2.FONT_HERSHEY_SIMPLEX, 0.5, (255,255,255), 1)
        person += 1
    
    cv2.putText(frame, 'Status : Detecting ', (40,40), cv2.FONT_HERSHEY_DUPLEX, 0.8, (255,255,255), 2)
    cv2.putText(frame, f'Total Persons : {person-1}', (40,70), cv2.FONT_HERSHEY_DUPLEX, 0.8, (255,255,255), 2)
    cv2.imshow('output', frame)

    return frame

def detectByPathVideo(path, writer):

    video = cv2.VideoCapture(path)
    check, frame = video.read()
    if check == False:
        print('Video Not Found. Please Enter a Valid Path (Full path of Video Should be Provided).')
        return

    print('Detecting...')
    while video.isOpened():
        #check is True if reading was successful 
        check, frame =  video.read()

        if check:
            frame = imutils.resize(frame , width=min(800,frame.shape[1]))
            frame = detect(frame)
            
            if writer is not None:
                writer.write(frame)
            
            key = cv2.waitKey(1)
            if key== ord('q'):
                break
        else:
            break
    video.release()
    cv2.destroyAllWindows()


def humanDetector(args):
    video_path = args['video']

    writer = None

    if video_path is not None:
        detectByPathVideo(video_path, writer)

def argsParser():
    
    parser = argparse.ArgumentParser()
    parser.add_argument("-v", "--video", default=None, help="path to Video File ")
    args = vars(parser.parse_args())
    return args

if __name__ == "__main__":
    HOGCV = cv2.HOGDescriptor()
    HOGCV.setSVMDetector(cv2.HOGDescriptor_getDefaultPeopleDetector())

    args = argsParser()
    humanDetector(args)

